//Numpy array shape [64, 30]
//Min -0.875000000000
//Max 0.750000000000
//Number of zeros 637

#ifndef W11_H_
#define W11_H_

#ifndef __SYNTHESIS__
weight11_t w11[1920];
#else
weight11_t w11[1920] = {0.000, -0.250, 0.250, 0.625, -0.250, -0.250, 0.000, -0.125, 0.125, 0.125, -0.500, 0.000, -0.125, -0.250, -0.125, 0.000, 0.000, 0.500, 0.000, 0.000, 0.250, 0.375, 0.000, 0.250, -0.250, -0.250, 0.000, 0.000, -0.125, 0.000, -0.500, -0.125, -0.125, 0.000, 0.000, 0.000, 0.000, 0.125, -0.250, 0.000, 0.000, 0.125, 0.250, -0.250, 0.125, -0.250, 0.125, 0.125, -0.125, 0.000, -0.250, -0.375, 0.000, 0.125, 0.125, -0.250, 0.000, 0.000, 0.125, -0.375, -0.625, 0.000, -0.375, -0.250, 0.375, 0.250, 0.125, 0.000, -0.125, -0.250, 0.375, 0.375, -0.250, 0.375, 0.500, 0.250, 0.000, -0.375, -0.375, 0.000, -0.250, -0.500, -0.125, -0.250, 0.250, 0.375, 0.125, 0.250, 0.000, -0.375, 0.000, -0.125, 0.250, 0.000, 0.000, 0.125, 0.250, 0.000, -0.125, 0.000, -0.250, -0.250, -0.125, 0.000, -0.125, 0.000, 0.000, 0.250, 0.125, -0.125, -0.125, 0.000, -0.250, -0.125, 0.250, -0.125, -0.500, -0.375, 0.000, 0.000, 0.000, 0.000, 0.125, 0.375, 0.000, -0.250, -0.125, -0.125, 0.125, -0.125, -0.375, 0.000, -0.125, -0.500, 0.000, 0.000, 0.000, 0.125, -0.125, 0.000, 0.250, 0.000, 0.000, 0.125, -0.125, -0.250, -0.250, -0.125, -0.250, 0.000, -0.125, 0.000, -0.250, 0.000, 0.000, 0.000, -0.125, 0.250, -0.125, 0.375, 0.500, 0.125, 0.250, -0.125, 0.250, -0.500, 0.250, -0.250, -0.125, -0.125, -0.500, -0.125, 0.125, -0.125, 0.250, 0.125, 0.125, 0.000, 0.125, -0.125, -0.125, 0.000, -0.125, -0.125, 0.125, 0.000, 0.000, 0.000, -0.250, 0.000, 0.125, -0.125, 0.000, 0.375, 0.375, 0.000, 0.125, -0.250, 0.000, 0.000, -0.125, -0.375, 0.000, 0.000, 0.375, 0.000, 0.000, 0.125, 0.000, 0.000, 0.250, 0.500, 0.375, 0.000, 0.000, 0.375, 0.125, 0.000, 0.250, -0.250, 0.000, -0.500, -0.375, 0.000, 0.125, 0.375, 0.250, 0.000, -0.125, -0.250, -0.375, 0.250, 0.000, 0.000, 0.375, -0.375, -0.250, -0.125, 0.250, 0.250, 0.000, 0.375, 0.250, 0.000, 0.250, 0.000, 0.000, 0.250, 0.250, -0.250, -0.125, -0.125, -0.125, -0.375, -0.125, 0.000, -0.250, 0.000, 0.000, 0.125, 0.250, 0.000, 0.125, 0.000, -0.125, 0.000, 0.000, 0.000, 0.000, 0.125, 0.000, 0.250, -0.250, 0.000, -0.125, 0.250, -0.125, 0.125, 0.125, 0.125, 0.375, -0.125, 0.125, 0.250, 0.250, -0.250, 0.125, -0.250, 0.000, -0.375, -0.625, -0.375, 0.250, -0.125, 0.375, 0.000, 0.125, -0.125, 0.500, -0.125, 0.000, -0.375, 0.000, 0.000, 0.000, 0.000, 0.250, 0.375, 0.000, 0.500, -0.125, 0.000, -0.125, 0.000, 0.000, 0.000, 0.250, 0.000, 0.250, -0.375, 0.000, 0.000, 0.000, 0.125, 0.250, -0.125, 0.000, 0.375, 0.125, 0.125, 0.125, 0.000, 0.000, -0.125, -0.250, -0.125, -0.375, 0.000, 0.000, 0.000, -0.250, -0.250, 0.000, 0.500, 0.000, 0.000, 0.250, 0.000, 0.000, 0.000, -0.375, 0.125, 0.125, 0.125, 0.000, 0.000, 0.250, 0.250, 0.250, 0.000, 0.000, 0.000, 0.000, 0.125, 0.000, -0.500, -0.125, 0.125, 0.000, -0.250, -0.125, 0.000, 0.000, -0.375, 0.000, -0.250, -0.125, 0.125, -0.125, 0.250, 0.125, -0.125, 0.125, -0.250, -0.375, -0.250, 0.000, -0.125, -0.250, 0.000, 0.250, 0.000, 0.000, 0.000, -0.125, 0.375, -0.250, 0.125, 0.125, 0.250, -0.125, 0.000, 0.375, 0.000, 0.125, 0.000, 0.375, 0.000, 0.250, -0.125, -0.750, -0.125, 0.000, -0.250, 0.500, -0.375, 0.250, -0.125, 0.625, 0.000, 0.000, -0.625, 0.125, 0.500, 0.250, -0.250, 0.000, 0.000, 0.250, 0.625, -0.375, -0.250, -0.125, -0.250, -0.375, 0.125, 0.125, 0.250, 0.500, -0.500, 0.375, 0.500, 0.500, 0.250, -0.500, -0.375, 0.000, 0.125, 0.375, 0.375, 0.250, 0.000, 0.000, 0.000, -0.125, -0.375, 0.000, -0.250, 0.000, 0.000, -0.125, 0.000, -0.125, -0.125, 0.000, 0.250, 0.125, 0.000, -0.125, -0.125, 0.000, 0.250, -0.125, 0.125, 0.000, 0.000, 0.250, 0.250, 0.250, 0.125, 0.250, 0.000, 0.250, 0.500, -0.375, -0.125, -0.125, -0.250, 0.250, 0.000, -0.125, -0.125, 0.000, 0.000, -0.125, 0.000, 0.125, 0.500, 0.125, 0.125, 0.000, 0.250, 0.000, 0.125, 0.125, 0.000, 0.000, -0.250, 0.000, 0.000, -0.125, 0.125, 0.125, 0.000, 0.000, 0.000, -0.375, -0.125, 0.000, 0.000, -0.250, 0.000, -0.125, 0.000, -0.125, 0.000, 0.375, 0.125, -0.500, -0.125, 0.000, 0.125, 0.000, -0.375, -0.125, -0.625, -0.125, -0.250, 0.375, 0.000, -0.375, -0.125, 0.000, -0.375, 0.375, -0.125, 0.000, 0.125, -0.125, 0.000, 0.250, 0.250, 0.000, 0.000, 0.250, -0.125, -0.125, 0.000, 0.000, -0.250, -0.125, -0.375, 0.125, -0.125, 0.250, 0.000, -0.125, 0.000, 0.000, -0.375, 0.125, 0.000, 0.250, 0.125, 0.000, 0.000, -0.125, -0.250, 0.125, 0.000, -0.375, -0.250, 0.000, 0.250, -0.250, 0.000, 0.000, 0.375, 0.000, 0.000, -0.125, 0.250, 0.000, -0.375, 0.375, -0.125, -0.125, -0.375, -0.125, -0.250, 0.000, 0.000, 0.125, 0.000, 0.000, -0.125, 0.000, -0.375, 0.125, -0.125, -0.250, -0.125, 0.000, -0.250, -0.250, 0.125, 0.000, 0.250, 0.125, 0.125, 0.375, 0.250, 0.000, 0.000, -0.125, -0.125, -0.125, -0.125, 0.000, 0.250, -0.250, 0.375, 0.000, 0.000, 0.000, 0.000, -0.125, 0.000, 0.000, 0.000, -0.250, 0.125, 0.000, 0.000, 0.000, 0.000, 0.000, 0.375, -0.375, 0.000, 0.000, -0.125, -0.125, -0.125, -0.250, -0.125, 0.000, 0.000, 0.000, -0.125, 0.000, -0.125, -0.125, 0.125, 0.250, 0.125, -0.250, 0.125, 0.000, 0.250, 0.000, 0.125, 0.000, 0.125, 0.000, -0.375, -0.125, 0.000, 0.000, 0.125, 0.000, -0.125, 0.250, -0.250, 0.125, 0.250, 0.250, -0.125, 0.125, -0.250, 0.000, 0.250, -0.125, 0.000, -0.125, 0.125, 0.000, -0.250, 0.125, -0.375, 0.000, 0.125, 0.000, 0.125, -0.125, 0.000, 0.000, 0.375, -0.125, 0.250, 0.250, 0.000, 0.000, -0.125, -0.125, -0.125, 0.000, -0.250, 0.000, -0.250, 0.000, 0.250, 0.250, 0.125, 0.250, 0.000, 0.125, 0.000, 0.125, 0.000, 0.000, 0.000, -0.125, -0.125, 0.250, 0.000, -0.250, -0.125, -0.125, 0.125, 0.125, -0.250, 0.000, 0.250, -0.250, 0.000, -0.250, -0.125, -0.375, 0.000, 0.000, 0.125, 0.000, 0.250, -0.125, 0.000, -0.250, 0.000, -0.375, 0.125, 0.125, 0.125, 0.000, 0.000, -0.125, 0.000, 0.000, 0.250, 0.000, -0.125, 0.000, 0.000, 0.125, 0.000, 0.125, -0.250, -0.125, 0.125, 0.000, -0.375, 0.000, -0.250, -0.375, 0.000, -0.125, 0.000, 0.125, 0.000, -0.250, 0.000, 0.000, 0.000, 0.000, 0.000, 0.000, 0.000, 0.000, -0.125, 0.125, -0.125, 0.000, 0.000, 0.250, 0.000, -0.125, 0.000, -0.125, 0.000, 0.000, 0.125, -0.125, 0.375, -0.125, 0.000, -0.125, 0.000, 0.000, 0.000, -0.250, 0.000, -0.125, 0.000, -0.375, -0.125, 0.000, 0.250, 0.000, 0.000, -0.125, 0.000, 0.125, -0.250, 0.125, 0.000, -0.125, -0.250, 0.125, 0.375, -0.250, 0.000, -0.375, 0.125, 0.000, 0.000, 0.125, -0.250, -0.125, -0.125, -0.125, 0.000, 0.250, 0.000, 0.125, 0.000, 0.125, -0.125, -0.500, 0.000, -0.375, 0.250, 0.375, -0.250, 0.000, -0.125, 0.000, 0.000, -0.250, -0.250, -0.375, -0.375, 0.250, -0.125, -0.250, 0.250, 0.000, -0.250, 0.000, -0.375, 0.250, 0.250, 0.000, -0.125, 0.000, 0.250, 0.125, 0.125, 0.125, 0.000, -0.125, -0.250, -0.250, 0.000, -0.125, 0.125, 0.125, -0.125, 0.375, 0.125, 0.375, -0.125, -0.375, -0.125, -0.125, -0.250, -0.125, -0.125, 0.000, 0.250, -0.125, 0.375, -0.250, 0.000, -0.250, -0.375, -0.500, 0.000, 0.125, 0.375, 0.000, -0.125, 0.000, 0.000, 0.000, 0.250, -0.250, -0.375, -0.250, 0.500, 0.375, 0.125, -0.375, 0.250, 0.000, -0.125, 0.000, 0.000, 0.000, -0.250, -0.500, -0.375, 0.000, -0.375, -0.500, 0.125, 0.375, 0.250, 0.125, 0.000, -0.375, -0.125, -0.250, -0.500, -0.125, 0.000, 0.000, -0.125, -0.250, 0.000, -0.250, -0.125, 0.250, -0.125, -0.375, 0.375, -0.500, -0.500, -0.375, -0.375, 0.375, 0.125, 0.000, 0.000, 0.250, 0.125, 0.000, -0.250, 0.000, 0.500, 0.125, 0.250, 0.125, 0.375, -0.125, 0.125, 0.000, 0.000, 0.125, -0.125, 0.000, 0.000, 0.250, -0.125, -0.125, 0.125, -0.250, 0.125, -0.625, -0.250, 0.250, 0.125, -0.250, 0.000, -0.125, 0.375, -0.125, 0.000, 0.000, 0.250, 0.000, -0.250, 0.000, 0.125, 0.125, -0.250, 0.000, 0.000, 0.125, 0.125, -0.125, 0.000, -0.375, 0.125, 0.000, 0.000, 0.250, 0.000, -0.250, 0.500, -0.250, 0.000, 0.000, 0.250, 0.000, -0.125, -0.250, -0.250, 0.250, 0.000, -0.250, -0.125, -0.250, -0.125, 0.250, -0.375, -0.375, -0.250, 0.000, 0.125, -0.125, -0.500, 0.500, 0.000, -0.250, -0.250, 0.250, 0.375, 0.000, -0.125, 0.000, -0.125, -0.250, 0.000, -0.125, 0.125, -0.500, 0.125, 0.250, 0.000, 0.375, 0.125, 0.000, 0.250, -0.125, -0.125, -0.125, 0.250, 0.000, 0.125, 0.125, 0.375, 0.125, 0.000, 0.125, -0.250, 0.000, -0.125, 0.000, 0.125, 0.000, 0.125, 0.250, 0.000, 0.000, -0.375, 0.000, 0.000, 0.000, -0.375, 0.250, 0.125, -0.125, 0.000, 0.000, 0.125, -0.125, 0.000, 0.000, 0.000, 0.250, 0.375, -0.125, -0.125, 0.000, -0.125, 0.250, 0.125, 0.125, 0.125, -0.250, 0.000, 0.125, -0.250, 0.000, 0.125, 0.000, 0.000, 0.000, 0.000, 0.000, 0.250, 0.125, 0.000, -0.250, 0.250, 0.000, 0.000, -0.250, 0.000, 0.000, 0.125, 0.125, 0.250, 0.000, 0.000, 0.375, 0.375, -0.250, 0.500, 0.125, -0.375, -0.125, 0.250, 0.125, -0.125, -0.250, 0.125, 0.375, -0.125, -0.125, 0.125, -0.125, -0.125, 0.500, -0.125, -0.125, -0.125, 0.000, 0.125, 0.000, -0.250, 0.000, -0.125, 0.000, -0.375, 0.000, 0.000, 0.375, 0.000, -0.125, 0.000, 0.000, 0.000, -0.375, 0.000, -0.250, 0.125, 0.000, -0.125, 0.375, 0.125, 0.000, 0.000, -0.375, 0.250, 0.250, 0.125, 0.000, -0.125, 0.000, 0.000, -0.125, 0.125, 0.250, 0.125, 0.125, 0.000, 0.000, 0.000, -0.125, 0.000, 0.125, -0.125, 0.000, -0.250, 0.500, 0.000, -0.250, -0.125, -0.125, -0.125, 0.125, -0.250, 0.125, 0.500, 0.375, -0.250, 0.125, 0.000, -0.250, 0.000, 0.000, 0.000, 0.250, 0.000, -0.125, 0.250, 0.000, -0.375, 0.000, -0.125, -0.250, -0.250, -0.125, 0.125, -0.375, 0.125, -0.125, 0.500, -0.125, -0.125, 0.000, 0.125, -0.250, 0.000, 0.250, -0.125, -0.375, 0.000, -0.125, -0.125, 0.000, 0.000, 0.000, -0.125, 0.000, 0.000, 0.000, 0.000, -0.250, 0.000, -0.125, 0.000, -0.125, 0.000, -0.250, 0.000, 0.125, 0.000, -0.250, 0.125, -0.250, 0.000, 0.000, -0.125, 0.000, 0.125, 0.000, 0.125, 0.125, 0.000, -0.250, 0.000, 0.500, -0.250, 0.000, 0.125, 0.000, 0.000, 0.000, -0.125, 0.000, -0.500, -0.375, 0.125, 0.375, 0.250, 0.000, -0.125, -0.125, -0.375, 0.000, -0.250, -0.375, 0.250, 0.125, -0.375, -0.375, -0.375, -0.125, 0.250, -0.250, 0.250, -0.125, 0.125, -0.125, -0.250, -0.125, -0.125, -0.125, -0.250, 0.250, 0.250, 0.500, 0.000, 0.250, -0.500, -0.250, 0.250, -0.375, 0.125, -0.125, -0.125, 0.000, 0.000, 0.000, 0.125, -0.125, -0.500, -0.125, -0.250, -0.125, -0.375, -0.375, 0.000, 0.000, -0.125, 0.125, 0.000, -0.625, 0.250, 0.000, 0.125, -0.375, 0.125, 0.000, 0.375, -0.125, 0.000, 0.000, 0.000, 0.375, -0.125, -0.125, 0.250, 0.000, 0.000, 0.000, 0.375, -0.375, 0.125, -0.250, -0.125, -0.250, -0.250, -0.250, -0.250, 0.000, -0.375, -0.375, 0.375, 0.375, 0.125, 0.000, -0.250, 0.000, -0.125, -0.375, 0.375, -0.125, 0.125, 0.125, -0.250, -0.500, 0.250, 0.000, 0.000, -0.250, -0.375, 0.000, 0.000, -0.375, 0.000, 0.000, 0.000, 0.125, 0.000, -0.125, -0.500, -0.125, 0.000, 0.250, 0.125, 0.125, 0.250, 0.125, 0.000, -0.375, 0.125, 0.125, 0.000, 0.000, 0.125, -0.500, -0.250, 0.375, 0.000, 0.000, -0.375, -0.375, -0.375, 0.250, -0.250, 0.000, 0.000, -0.250, 0.000, 0.000, -0.625, 0.000, 0.125, 0.250, 0.250, 0.375, 0.125, 0.000, -0.125, -0.125, 0.250, 0.125, 0.125, 0.000, 0.375, -0.625, 0.125, 0.250, 0.375, -0.125, -0.500, 0.250, 0.125, 0.250, -0.250, 0.125, -0.250, 0.000, 0.250, 0.500, 0.250, -0.250, -0.125, -0.125, -0.250, -0.250, -0.250, -0.500, 0.500, 0.250, -0.375, 0.125, 0.000, -0.375, -0.125, -0.375, 0.250, -0.375, 0.250, -0.125, 0.125, 0.500, 0.250, 0.000, -0.125, -0.250, 0.250, 0.125, 0.000, -0.375, -0.125, 0.125, -0.125, -0.125, 0.000, -0.125, 0.250, 0.000, 0.250, 0.000, 0.125, 0.125, 0.125, 0.000, 0.000, 0.375, 0.000, -0.125, 0.000, 0.000, 0.250, 0.000, -0.250, 0.125, 0.250, 0.000, -0.125, 0.000, 0.000, 0.500, 0.000, -0.250, -0.125, 0.125, -0.125, 0.000, 0.000, -0.250, 0.000, 0.125, 0.000, 0.000, 0.125, -0.250, 0.000, -0.500, 0.000, 0.000, 0.000, -0.250, 0.125, 0.125, 0.500, 0.125, 0.000, 0.125, 0.250, 0.000, 0.000, 0.000, 0.125, 0.125, 0.000, 0.000, -0.125, 0.250, 0.000, 0.250, 0.000, -0.125, -0.250, 0.125, 0.000, 0.375, 0.125, 0.125, 0.250, 0.125, 0.000, 0.125, -0.125, -0.125, 0.000, 0.000, 0.000, 0.250, -0.125, 0.000, 0.000, 0.125, 0.375, 0.125, -0.125, -0.125, 0.000, -0.125, -0.125, 0.000, 0.125, 0.125, 0.000, 0.250, 0.125, 0.000, -0.250, -0.125, 0.250, -0.375, 0.000, 0.000, 0.125, 0.000, 0.250, 0.125, 0.125, 0.125, 0.000, 0.375, 0.500, 0.125, 0.125, 0.125, -0.375, -0.250, -0.125, -0.250, 0.250, 0.000, 0.375, 0.000, -0.125, 0.375, 0.000, 0.125, 0.125, 0.125, -0.375, 0.000, 0.250, 0.000, 0.125, 0.000, 0.000, 0.000, -0.250, 0.000, 0.000, -0.250, 0.000, 0.375, -0.125, -0.125, 0.375, 0.125, 0.000, 0.000, 0.000, 0.000, 0.000, -0.125, 0.000, 0.000, 0.000, -0.375, 0.000, -0.250, 0.125, 0.000, 0.125, -0.250, 0.000, 0.375, 0.125, 0.000, 0.125, 0.375, 0.375, 0.125, -0.250, 0.000, 0.500, 0.125, 0.000, 0.125, 0.250, 0.125, -0.250, 0.000, -0.125, -0.125, -0.250, -0.125, -0.125, 0.250, 0.000, 0.250, 0.125, 0.000, -0.250, 0.125, 0.000, -0.375, -0.250, 0.125, 0.125, 0.000, 0.000, 0.000, 0.000, 0.000, 0.000, 0.000, -0.125, -0.125, 0.000, -0.125, -0.125, -0.125, 0.375, 0.125, 0.000, 0.125, 0.000, -0.250, 0.000, -0.125, -0.125, -0.250, 0.000, -0.125, -0.125, 0.000, 0.000, 0.375, -0.250, -0.125, 0.000, 0.000, 0.000, 0.250, -0.125, 0.000, 0.000, 0.125, 0.000, 0.250, 0.000, 0.000, 0.250, -0.250, -0.125, 0.250, 0.250, 0.250, 0.250, -0.125, 0.125, 0.125, 0.375, 0.000, 0.000, 0.000, 0.125, 0.000, 0.000, 0.000, -0.125, 0.375, 0.125, 0.250, 0.000, 0.250, -0.250, 0.000, -0.125, 0.000, 0.000, -0.125, 0.000, 0.000, -0.250, 0.125, 0.000, -0.125, 0.125, 0.000, 0.000, 0.125, 0.125, -0.250, -0.125, 0.125, 0.000, 0.375, -0.250, 0.000, 0.000, -0.250, -0.250, -0.125, -0.125, 0.125, 0.000, 0.250, 0.250, 0.125, 0.000, 0.000, -0.250, 0.125, -0.125, 0.000, 0.000, -0.125, 0.125, 0.000, -0.125, 0.125, 0.000, 0.250, -0.125, 0.250, 0.000, 0.000, -0.250, -0.125, -0.250, 0.375, 0.250, 0.375, 0.125, -0.125, -0.250, 0.125, 0.000, -0.375, 0.000, 0.000, 0.250, -0.125, -0.125, 0.000, 0.000, 0.125, 0.000, -0.250, 0.000, -0.125, 0.375, 0.000, 0.125, 0.000, 0.125, 0.000, -0.500, -0.375, 0.000, 0.000, 0.000, 0.250, 0.000, 0.000, 0.000, 0.750, 0.375, 0.250, 0.375, 0.000, -0.250, -0.875, -0.375, 0.625, 0.375, 0.625, 0.250, -0.625, 0.125, 0.250, 0.500, 0.000, -0.375, -0.250, 0.000, 0.250, 0.000, -0.250, -0.250, -0.375, 0.125, 0.000, 0.125, 0.000, 0.125, -0.125, 0.125, -0.250, 0.250, -0.125, 0.125, 0.000, -0.125, 0.250, 0.000, -0.250, 0.125, -0.250, -0.125, -0.250, 0.250, 0.375, 0.375, 0.250, 0.125};
#endif

#endif
