//Numpy array shape [30, 10]
//Min -0.750000000000
//Max 0.750000000000
//Number of zeros 35

#ifndef W13_H_
#define W13_H_

#ifndef __SYNTHESIS__
weight13_t w13[300];
#else
weight13_t w13[300] = {0.500, -0.500, -0.375, -0.250, -0.500, 0.000, 0.250, -0.625, -0.375, 0.250, 0.000, 0.250, -0.375, 0.625, 0.375, -0.375, -0.500, -0.375, 0.250, 0.500, -0.250, 0.500, -0.125, -0.375, 0.000, 0.125, 0.250, -0.375, 0.500, 0.500, -0.125, 0.250, -0.500, -0.500, 0.125, 0.000, 0.375, 0.375, -0.375, 0.500, -0.625, 0.500, 0.375, 0.125, -0.250, 0.375, -0.500, -0.375, -0.500, -0.125, 0.000, 0.000, 0.625, 0.375, -0.375, 0.125, -0.250, -0.625, 0.000, 0.375, 0.250, 0.500, 0.375, 0.125, -0.250, 0.125, 0.375, -0.375, 0.500, -0.500, -0.250, 0.625, 0.000, 0.375, -0.500, 0.750, -0.500, 0.000, -0.375, -0.125, 0.250, 0.125, -0.375, -0.500, 0.000, 0.000, 0.250, -0.500, -0.250, 0.625, 0.000, -0.500, -0.125, -0.625, -0.500, 0.625, 0.125, 0.750, 0.000, -0.250, 0.500, 0.500, 0.750, 0.125, -0.250, -0.625, -0.625, 0.625, -0.125, -0.500, 0.375, 0.000, 0.000, 0.125, 0.500, 0.000, -0.250, 0.625, -0.500, -0.500, 0.750, 0.250, 0.000, -0.375, 0.000, 0.000, -0.500, 0.500, -0.250, 0.250, 0.000, -0.625, 0.625, 0.250, -0.125, -0.625, 0.250, 0.375, -0.250, 0.375, -0.375, 0.375, 0.125, 0.125, -0.375, -0.625, -0.375, 0.500, 0.125, 0.125, -0.250, -0.125, 0.125, 0.500, -0.125, 0.000, 0.500, -0.375, 0.250, 0.000, 0.000, -0.375, -0.625, 0.500, -0.375, 0.250, -0.125, -0.250, 0.375, 0.500, -0.250, -0.750, -0.375, -0.750, 0.750, 0.250, -0.250, -0.250, 0.125, 0.000, 0.375, -0.125, 0.375, -0.500, -0.625, 0.375, 0.250, -0.375, -0.500, -0.250, 0.500, 0.125, 0.000, 0.000, 0.500, -0.375, -0.125, -0.375, -0.500, -0.500, -0.375, 0.625, -0.125, -0.625, 0.500, -0.250, 0.750, 0.000, -0.500, -0.375, 0.375, -0.250, -0.125, -0.500, 0.250, 0.000, 0.625, -0.375, -0.125, 0.375, -0.125, 0.375, -0.375, 0.375, 0.000, 0.625, 0.000, 0.500, -0.625, 0.625, -0.125, 0.250, -0.250, -0.500, -0.500, -0.250, 0.750, 0.000, 0.500, -0.500, 0.000, -0.375, 0.500, -0.375, -0.625, -0.625, -0.375, 0.125, 0.250, 0.500, 0.625, 0.125, 0.500, 0.125, -0.125, -0.500, 0.125, -0.250, -0.500, -0.500, 0.250, -0.250, -0.500, 0.250, -0.250, -0.250, 0.125, 0.375, -0.375, 0.125, -0.375, -0.250, -0.375, 0.625, -0.500, 0.375, 0.500, 0.000, -0.375, -0.375, 0.625, -0.500, -0.375, 0.000, -0.625, 0.500, -0.375, -0.125, 0.500, 0.000, 0.375, 0.250, -0.125, -0.250, -0.500, 0.375, 0.750, -0.500, 0.375, -0.375};
#endif

#endif
