//Numpy array shape [64]
//Min 0.000000000000
//Max 0.000000000000
//Number of zeros 64

#ifndef B2_H_
#define B2_H_

#ifndef __SYNTHESIS__
bias2_t b2[64];
#else
bias2_t b2[64] = {0.9666025043, -0.3132849932, 0.7679651976, 1.0553698540, 2.1480000019, 0.1369736791, -0.5244668126, -0.0670873523, 0.1555440724, -0.1601885110, -0.0743856430, -0.1878912002, 0.2554657161, -1.6712670326, -0.0350394771, -0.2797110677, -0.0703512132, -0.1234878898, -0.0755853504, 0.0553846359, 0.0051007867, -0.0614240430, -0.1645344645, 0.3089633584, -0.9039086103, 0.7401888371, -0.3945086300, -0.9479604959, -0.3499259651, 0.1490168273, -0.2027035952, -0.0649969950, 0.3084964752, -0.7237303257, -0.0935478806, -0.3913924396, -1.8580722809, -0.1244772375, -0.1205762997, -0.4712189138, 0.5002408624, -0.3099780679, 0.5430709720, 0.3621893525, 0.4094312489, 0.0590373278, -0.3100441098, -0.0193986148, -0.1966083199, -0.7130036950, 0.7188256979, -0.9801197052, -0.2099457830, -0.3493312001, -0.0968535691, -0.0774607658, -0.2791872919, 0.1081567705, 0.3035786748, -1.3294894695, -0.2892836034, 0.0080567896, -0.4041766226, -0.4103928804};
#endif

#endif
