//Numpy array shape [3, 3, 16, 16]
//Min -0.163443401456
//Max 0.106343105435
//Number of zeros 0

#ifndef W20_H_
#define W20_H_

#ifndef __SYNTHESIS__
conv_4_weight_t w20[2304];
#else
conv_4_weight_t w20[2304] = {0.3252375126, 0.0194335897, 0.0401992463, -0.1233578101, -0.2013413459, -1.0050481558, 0.0769640133, 0.0200102627, 0.1697039306, -0.0645057634, -0.0277355891, -0.3233693838, -0.5009961128, 0.0675944984, -0.0177796111, 0.0201148354, -0.1263078302, -0.1102640256, -0.0707499310, 0.0229347534, 0.1537072062, 0.0320019051, -0.2218014002, 0.2119446993, -0.0998216718, 0.0039762235, -0.1086893007, 0.0241326131, -0.1022579446, -0.1579780877, 0.1069229692, -0.0224802084, 0.0136379646, -0.3823013008, -0.1836757958, 0.0116780680, -0.1060165018, 0.0359617136, -0.0612996705, -0.0545922667, 0.1447799206, -0.0958357081, 0.2919661105, 0.0204220843, -0.1969676763, -0.0940687209, 0.0099457270, 0.0858708248, -0.0024030893, -0.0303243175, -0.0715586096, -0.0011547498, 0.3711019158, 0.0056070276, 0.0009917215, -0.0710056573, -0.1049605533, 0.1367019266, 0.1223681420, -0.0188820176, -0.0042570690, 0.1081440374, 0.4930351675, 0.0065761767, 0.0121433157, -0.0192253869, 0.0387320854, -0.1378626078, 0.0457672849, 0.0097846519, -0.0292813312, 0.0187154170, -0.0958934724, 0.1609031409, -0.1534811258, -0.0339203253, -0.0012716864, -0.0074250884, -0.1592020839, 0.0703526288, -0.1660530865, 0.0680495873, 0.0015679337, 0.1060120687, 0.0293421540, -0.0397023447, -0.0255132820, -0.0338837057, 0.0593442172, 0.1219643727, -0.0018638032, -0.0187998861, -0.0714089125, -0.0426249653, 0.0248763599, 0.2191408575, 0.3654403985, 0.0320521928, 0.3331843615, 0.2783724964, -0.0406684913, 0.0905655846, -0.0119465319, -0.0087227989, 0.2415808886, 0.2230267376, -0.0139706740, -0.0011176822, 0.0493036248, 0.0990939885, -0.1289633512, 0.0616664775, -0.0531297810, -0.0191572160, -0.1028931290, 0.0020460112, -0.0007413664, -0.0503326617, 0.1871272773, 0.0171232857, -0.0252612475, 0.0125763854, 0.0137878023, -0.2659262717, -0.0692544132, -0.0582627915, 0.0034383291, -0.5339928269, -0.0168021657, 0.0064721401, 0.0651579201, -0.0285541993, 0.2831172943, 0.0087193679, 0.0206030216, -0.0265336428, -0.0678133368, 0.0338527635, -0.2690537274, 0.4122982323, -0.1534128487, -0.0598599613, -0.0800441876, -0.1431104839, -0.0590255633, -0.2222338170, -0.0920353755, -0.0275059119, -0.0405821055, 0.0577277914, 0.0175519045, -0.0003221396, -0.0666848198, -0.0540794469, -0.0047914581, -0.0275132563, -0.1169838160, 0.0026899010, -0.1708428860, 0.0208540894, -0.0062531829, 0.1547712237, 0.2215946019, -0.1005733237, -0.0042769751, -0.0026358666, 0.0909349173, 0.0025585406, -0.1466817856, -0.0856018439, 0.1407033801, 0.0982427672, 0.1285022050, 0.0135324951, -0.0374497212, 0.1220280901, 0.0002927428, 0.0751908794, 0.1482118219, -0.1900537908, -0.5786237121, 0.0087126000, 0.0825614780, 0.0304993056, 0.0789263695, -0.2567251921, -0.0041478793, 0.0285867359, 0.0731573552, -0.1083940864, -0.0692751184, 0.1278426498, -0.4198605418, -0.3163032532, -0.1509456038, -0.0917875841, -0.1402663887, 0.0943480805, 0.1200162619, 0.0018422191, 0.0685678869, 0.0422251634, 0.0295771714, -0.0901077241, -0.1048986465, 0.0030258284, -0.4014414847, -0.4530715048, -0.0480272584, -0.0248367731, -0.1442887634, -0.1057959422, -0.0674809366, 0.0176392067, -0.3432604373, -0.0646158084, 0.0068364260, -0.2069194317, 0.2692796290, -0.1706401408, -0.0615344793, 0.0831686780, 0.1079182476, 0.0889550745, 0.0803401768, -0.0644320771, 0.1230234578, 0.0034893660, 0.0635345727, -0.0427877158, -0.1140890941, 0.0137270931, -0.3211488128, -0.0054591727, 0.0391594432, -0.1357273906, 0.0494768247, 0.0618296489, -0.0299726855, 0.0957703516, 0.1166882142, -0.0090662194, 0.0262002870, -0.3049998879, 0.0131062316, -0.0635470226, 0.0109967822, 0.0146868434, 0.0115780355, -0.0032801181, 0.2137935162, 0.0930188745, 0.1140880734, 0.0267309137, 0.0399062745, 0.2394390851, -0.0975968912, 0.0723022968, 0.0094683226, 0.0861229151, -0.0105103785, 0.0239581876, -0.0872006416, -0.2081093192, 0.0509389229, -0.0413416699, 0.1064340025, -0.0246671960, -0.0835386738, -0.0003094071, 0.1109909415, -0.0151136415, 0.1467724442, 0.0306234285, 0.0402825512, 0.0600284860, -0.0796403959, 0.2509823740, 0.0283671413, 0.5207345486, -0.2231624573, 0.0413161889, -0.0688769147, 0.0156653374, -0.2698057890, -0.0956516340, 0.1027559564, -0.0043890257, -0.1704368144, -0.0140429009, 0.1767278314, 0.1913394183, -0.1263291836, 0.1952317059, 0.0888334736, -0.1074803695, 0.0944171026, -0.1728927791, -0.1086482182, -0.0227191951, -0.1630903929, -0.3625624180, 0.2616460323, 0.0486747772, -0.2381626517, -0.0195976384, 0.0108495224, 0.1916193366, 0.0813040584, -0.3555916548, -0.3021005094, 0.4728501141, 0.0200629830, 0.0198980495, -0.0352336504, 0.2717745900, -0.0432177819, 0.1508886516, 0.2966747880, 0.0776126459, 0.0080627659, 0.0508946553, 0.1770462096, 0.1302739233, -0.2339621633, -0.0093930829, -0.2955783308, 0.2755050063, -0.0921951085, 0.1010247320, -0.9296393991, 0.0680800453, 0.1948796213, 0.1159377620, 0.1525975168, -0.0927148387, 0.0071022604, 0.0818996951, 0.0481975488, 0.3206190169, -0.1231819093, 0.0855477974, -0.0137077607, -0.0739373863, 0.1735187322, 0.0055097528, 0.1895473748, 0.0082216952, 0.1604639441, 0.0186557490, 0.2662647367, -0.1612727642, -0.0111787990, -0.1003937274, 0.0124638174, 0.0363326445, -0.1771247536, 0.1551196724, -0.0688786954, 0.1474934667, 0.0052035418, -0.1461859941, 0.2373306751, 0.0470645353, -0.2058105171, -0.1529512405, -0.2652210593, -0.0425084792, -0.0088865953, -0.4583894014, -0.2731129825, 0.2063506097, 0.0122784674, 0.0091346493, 0.1869028211, 0.0016102454, -0.1572909355, 0.1100924090, -0.2884128094, -0.0916277617, 0.3265911639, -0.1093942374, -0.2052543610, 0.3080397248, 0.1728769541, -0.2593214214, -0.0969622210, 0.1222402602, 0.1964386106, -0.0340933725, -0.1391890794, -0.2118724436, -0.5417831540, -0.1506517380, -0.1443886608, 0.0093944902, -0.0320420489, -0.1980839074, -0.0410221815, -0.1001342088, 0.0846466944, -0.0623019151, -0.1365927309, -0.1146647036, 0.0374576598, -0.1488466561, 0.4532561600, 0.3476084769, -0.0003130778, -0.0583355874, -0.0023656914, 0.1260275692, 0.0555987284, -0.1020071805, 0.0847153217, 0.0172990896, 0.3674541414, 0.0816236064, -0.4120759368, 0.0490489714, 0.0428194478, -0.3833148479, -0.0047868844, -0.1802233756, 0.0162794068, -0.1529938281, -0.2349340916, -0.0650703087, 0.0814944506, -0.0714164600, 0.0144124152, 0.2141975313, 0.0103874886, -0.1008211151, -0.2378515303, -0.0866927132, -0.1228235438, 0.0716071129, 0.1009844244, 0.0554450713, -0.0765094906, 0.0642816350, 0.0608671457, -0.3512741923, -0.0318965390, 0.0015783707, -0.0333692655, -0.0388568044, 0.0469028689, 0.1976618469, -0.0033132827, -0.1340540051, -0.0005110812, -0.1343976110, -0.1200166643, -0.0055710799, -0.1878603697, 0.0215576515, 0.0764034092, -0.0153691396, 0.0695654452, 0.1621123701, -0.0092749139, -0.0816472471, 0.1921616793, -0.0371153392, 0.0779462531, 0.0778446123, 0.0406778045, -0.0258639064, -0.1029938683, 0.0733596832, 0.0001922833, 0.3386629820, -0.1414379776, -0.0817539245, 0.0828331932, -0.0645718724, 0.0106038442, -0.0293601006, 0.0243218876, -0.1991005242, 0.1309477091, -0.0134737538, -0.0584273152, 0.0297017489, 0.2453378290, -0.3011988103, -0.0552965254, 0.1662233621, 0.0105372081, 0.0102983173, -0.0361965075, -0.0000904072, 0.1323608160, 0.1915461570, -0.0300332066, -0.2296635509, 0.1374189109, -0.1148514673, 0.0046393285, -0.0137319397, 0.3433628082, -0.1102369875, -0.0269804839, 0.1325228959, 0.0007704546, -0.0979651064, -0.0794388726, -0.0306577329, 0.0324460864, -0.1866530627, -0.0329933427, -0.0111550326, 0.3912324607, 0.0100883124, 0.0232981984, 0.0059090164, 0.0003778026, 0.0534990467, 0.0451243371, 0.0195436496, -0.1363909245, 0.2439260781, -0.0154752173, -0.1249843165, -0.4773346782, -0.0745713115, 0.0272738654, 0.2136017829, 0.0791371614, -0.0281368643, 0.0359213278, -0.0647406131, -0.0198599342, 0.5417950749, -0.0162603483, -0.0521758609, 0.0481977798, -0.0834633037, -0.0831085518, -0.1856827438, -0.0089186998, -0.0091415737, -0.2000341415, -0.1284945756, 0.2293164581, 0.0481423624, 0.2568772435, -0.0362304449, 0.0978034586, -0.1457818151, -0.0864533409, -0.2489080876, 0.3191555440, -0.1038059816, 0.0088783260, -0.1371685714, -0.1403205991, -0.0054026144, 0.0752868205, -0.0888509080, -0.0439441018, -0.1121899709, 0.0584011115, 0.2699645758, 0.0119408248, -0.1927359551, 0.1165450737, 0.0534247421, -0.0268732384, -0.1353185475, -0.1707139164, -0.1071691364, -0.0121933706, 0.1568725705, 0.0404873528, -0.1238155514, -0.0055091572, 0.3271471858, -0.3348674178, -0.0112773199, 0.0308825392, -0.2286219895, 0.0400661081, 0.1186622232, 0.0553968325, -0.3120218515, 0.0757702887, 0.0139290728, 0.1955073178, 0.0141257923, -0.2571201622, -0.0669765249, 0.1044032499, 0.1610915065, 0.0357111506, -0.0914299414, -0.3161875010, 0.0641696155, 0.0969328806, -0.0923821330, -0.0058450392, 0.0991379470, 0.0026607353, -0.0041335034, 0.0266630501, 0.1945147365, -0.2413625419, -0.1678313911, -0.1085371822, 0.1812681854, 0.3766637146, 0.3356947303, -0.1222773269, 0.1627624631, -0.0787641108, 0.0083286501, -0.0341949016, -0.0584920235, -0.0975594968, -0.0080345022, -0.1015822068, 0.1283602864, -0.0512441061, 0.2058346272, -0.0894260406, -0.0075099324, 0.4590443671, 0.3257598877, -0.1000228524, 0.0698314011, 0.0879827738, 0.0513052121, 0.1352303922, 0.0570342168, 0.0799984634, -0.0916759446, 0.0017411116, -0.0882479697, 0.0954803303, -0.0164691750, 0.1617399752, 0.0218759961, -0.0887461826, 0.2878504395, 0.1748379469, -0.1494495273, 0.0347804278, -0.3794603348, 0.0016577911, 0.0987466872, -0.1687094569, 0.0383776389, -0.0594307818, -0.0814099833, 0.2436711043, 0.0023965857, -0.0235184561, -0.0479800068, 0.2237936407, -0.0088783074, 0.0292667132, 0.0207183659, -0.0448875874, -0.0068017328, -0.0574808270, -0.2145997733, -0.2183313370, 0.0182051416, 0.1153770015, -0.0769135281, 0.0429414101, 0.0164304245, -0.1651904732, -0.1124345139, 0.0646864101, -0.0122737456, -0.1118348315, -0.0493613258, 0.0281493962, 0.1952949315, -0.1852910817, -0.1113249958, -0.1591436714, -0.0085732127, -0.0036469030, 0.1692914814, 0.0397976935, -0.0191423371, -0.0267667118, -0.1047629490, 0.0232571699, 0.1030835211, 0.0257179905, 0.0053056977, 0.0175506622, 0.0095654493, -0.0025000703, 0.0003977618, 0.0350294858, 0.3232479393, -0.1499670148, -0.0081621371, 0.1256663054, 0.0325166620, -0.2795037925, 0.0222310834, 0.0650600418, -0.3033080101, -0.0207094848, -0.1215796173, -0.2296723276, 0.1659764647, 0.3076359630, 0.1552757025, -0.0528057478, -0.0085605169, 0.0645001680, -0.0738576651, 0.0982743725, -0.0227806885, 0.1024035439, 0.0799570754, 0.0065051783, -0.0790376067, -0.0338433944, -0.2119665742, -0.2081674635, -0.0309296977, -0.0165406764, 0.0145447254, -0.0137400301, -0.0048201019, -0.1074075326, 0.1444226205, 0.0508116446, -0.0009271967, -0.1400288939, -0.2325519323, -0.0149397627, -0.2899190485, -0.2775353193, 0.0887518153, -0.1354022622, -0.0204857290, 0.0470604040, 0.0201118942, 0.1209888458, 0.1584776789, 0.0447811112, -0.0135847768, 0.0748973265, -0.1263109595, -0.0545261875, 0.0695156157, -0.3397731483, -0.0377177708, -0.4349053204, -0.1141061410, -0.0242630150, 0.1439646035, 0.0931961685, -0.2151804119, 0.2555272877, 0.0083456924, 0.0292352438, -0.1329127252, 0.1381136924, -0.0750116408, -0.0327086560, -0.0897555128, 0.0388235971, -0.2551615536, -0.3112595379, 0.0416028500, -0.0411058515, -0.0208162200, 0.1213551387, 0.0735032186, -0.2224910855, 0.0786530450, -0.0477565154, -0.4214478135, 0.1359166205, 0.3747691810, -0.0171028525, 0.0584478676, -0.0853988081, 0.1189179868, 0.0114413835, 0.0626570359, -0.2122452855, -0.0878393799, -0.0477724485, 0.1240976304, -0.4205117822, 0.1259465218, 0.0050360202, -0.0636475310, -0.0346673019, 0.0005779633, -0.0106931478, -0.0508169606, -0.2442435175, 0.2520966232, 0.0246027336, -0.1514631063, -0.6702661514, -0.2891125381, 0.1716411114, 0.0087369764, -0.0002900851, 0.0141193364, -0.0864301771, -0.0704529658, -0.1388358623, 0.0050532459, 0.2923734486, 0.0574541241, 0.6342167258, -0.0563609302, 0.0086429128, 0.1260307729, 0.1821545213, 0.0749641359, 0.0320017524, 0.1135445163, -0.1838624179, 0.0121413143, -0.1044344008, 0.0160689875, 0.1000647396, 0.0452189855, 0.3381198347, 0.0921877399, 0.0104286009, 0.2512529492, 0.0222681109, 0.0428641848, 0.2364965230, -0.3879080713, -0.0091553014, 0.0995098427, -0.0470597632, -0.0050073960, 0.0030492481, -0.0727642775, -0.2222741991, 0.1475567818, 0.0423045903, -0.0500803180, -0.1040102467, -0.0632324368, -0.4068330824, -0.0419172980, -0.1210875586, -0.0513818711, 0.0418454185, 0.0404128768, -0.1898579448, 0.0066272761, 0.2911320627, -0.0406337008, -0.0781683996, -0.0460379012, -0.0862548947, 0.0563653968, 0.0691130832, 0.0741138235, -0.0029032410, 0.0155498739, -0.3138079941, -0.1501624584, 0.1248508543, 0.0029248279, 0.0823217779, -0.1227443516, -0.1879686415, 0.0441614576, 0.0028082544, 0.0662841573, -0.2330188453, -0.1016132683, 0.0092425281, 0.0693701580, -0.0163494647, 0.0521333143, 0.0569416881, -0.1653344929, 0.0694253817, 0.0399680585, -0.4412796199, 0.1872973144, 0.0156552587, -0.0038594746, -0.0592250153, -0.2651275694, -0.1107329279, 0.2179113925, 0.0001875496, -0.0522961877, 0.1615822911, 0.0210261457, -0.1848385483, 0.0287729409, -0.1473317146, 0.1813663989, 0.0056259506, 0.0955025032, -0.0501630716, 0.1827028990, -0.0290220529, 0.0653521121, -0.0141563024, 0.1472013891, 0.0108798640, -0.0984214097, -0.0819544494, 0.3597144783, -0.0052388525, -0.2470140308, -0.0194884446, -0.2315277904, 0.2703101039, -0.0123759769, 0.1489304602, -0.1210399792, 0.0592853352, 0.4721155465, 0.3550603390, 0.0354689322, -0.3043806255, 0.1536048502, -0.0394085273, 0.0823090151, -0.1094553918, -0.0111246314, -0.2189240754, 0.0560702831, -0.1739061028, 0.0337767005, -0.2959188521, 0.4602909684, -0.0039875014, 0.0244768802, 0.0191326533, -0.0412068516, -0.3667425811, -0.3092447519, 0.4045098722, -0.3227848709, -0.0973791853, -0.0360638462, -0.1693984568, 0.0085455235, -0.0671914443, 0.2205073833, 0.0101051200, -0.0124548040, -0.0212164205, 0.2959052920, 0.0223791059, 0.1113053039, -0.0057395608, 0.0218403731, -0.0252956972, 0.0732976943, -0.1678789258, 0.0051233163, -0.0215728804, 0.0500676185, 0.1001510546, -0.0443634689, -0.0394343771, -0.1076253429, 0.1453974396, -0.0361613072, -0.0562747829, 0.1109928116, 0.1148428544, 0.1125382558, -0.2184970379, -0.0672906786, -0.6839247346, 0.0522910655, -0.0088863038, -0.0082661100, -0.0184850246, -0.0748807788, -0.0123366648, -0.0796204135, -0.0412056781, -0.0520046391, 0.4303854704, -0.2724405825, 0.0086538410, -0.1461739391, 0.1534276009, 0.0973077342, 0.0139502790, -0.1302176565, -0.2167461812, -0.0314826816, 0.0144023374, -0.3597896695, -0.2147777379, 0.0039859577, -0.3245911598, -0.1082527190, 0.0102561926, -0.0732664540, 0.0845530331, -0.0065948823, 0.1422562301, 0.1113911718, 0.0073340815, 0.0723457560, 0.0259774141, 0.0283631906, -0.0637281984, -0.1309989542, 0.0237167198, 0.3441007733, 0.1342539787, 0.0979712680, 0.2148840576, -0.0908776596, -0.2769332826, -0.1363180429, -0.2927701175, -0.1754043102, 0.0080014793, 0.2513380945, -0.0276601762, 0.3619810939, -0.0799916014, -0.3407499194, 0.0044520744, 0.0307794809, -0.2397555411, 0.0184553638, 0.1459173709, -0.0077492394, -0.0674817562, 0.1832337379, -0.0633733273, 0.2137716860, 0.0703345612, 0.1987323761, -0.0492569916, 0.1516964138, -0.1211175323, 0.0282525383, 0.1467300206, -0.4852938950, -0.1203841493, 0.1740328670, -0.0372853987, 0.0271549355, 0.1020985097, 0.0722924471, 0.0780305639, -0.0455145240, -0.0531568080, -0.0572586171, 0.0194661468, -0.0026567413, 0.0713157505, -0.0382690504, 0.0025923830, -0.0839505345, -0.1143923849, 0.0050619142, -0.2818461061, -0.0159545410, -0.1290114969, -0.0331210904, 0.1815732270, 0.0811247826, 0.1505025923, -0.0327198096, -0.0346379206, -0.0095119514, -0.0112010892, -0.0564726926, -0.0072048334, -0.2896966934, 0.0905273259, 0.1997708678, 0.2136387527, -0.0819438547, 0.0020832291, 0.0668788478, 0.0195099637, 0.0408736393, 0.1256608814, 0.0050310600, 0.1565666199, 0.1178202555, -0.0624068901, 0.0269098599, 0.1206335649, 0.0270605572, -0.0430260152, 0.0317430794, -0.1288565099, 0.0791140199, -0.0226540137, -0.1473798752, -0.0446027629, -0.0780387446, -0.0628455356, -0.1056876257, 0.3917468190, 0.0266895834, -0.2381370813, -0.0207300987, 0.0104031749, 0.2864382267, 0.0500709899, -0.0313624218, 0.0780177563, -0.0013597046, -0.2122120261, 0.0615209974, 0.1179723218, 0.0240639560, 0.0201708525, 0.0634620339, 0.0178144891, 0.1474713981, 0.1823518276, 0.1126576215, -0.1462402791, -0.2282409668, -0.0082164863, -0.1221666783, 0.1718739569, 0.0303337928, -0.0588957146, 0.1400650293, 0.0772534013, -0.0018069980, -0.1042631790, -0.0434223823, 0.0005677941, -0.0753871351, -0.1593648493, 0.0490372851, -0.1319129914, -0.0320080519, -0.3228992820, -0.1494032145, -0.2495878339, 0.0607835017, -0.0951212570, -0.0545812361, 0.1962530464, -0.0217905007, 0.1380112171, -0.3200915456, -0.0431918353, -0.1457978040, -0.0652334020, 0.0885331184, 0.0151890954, 0.3454016745, 0.2338973284, -0.0929639190, -0.0299011562, -0.2351008207, 0.1260903627, 0.0543658808, -0.0508924238, -0.0077036861, 0.0020571949, -0.1598156542, 0.0310525335, -0.1078802720, 0.2487211823, 0.0260882229, 0.2401062250, 0.0388925411, -0.2009256482, 0.6573138833, -0.0173968449, 0.1727766544, -0.1424722373, 0.0874912068, 0.0673113838, 0.0212406199, 0.0916021988, -0.3716958761, -0.1895232052, -0.1935347021, 0.0719722137, -0.0212429874, -0.3156618476, 0.0668515712, 0.0045215809, 0.0129305236, 0.0038174731, 0.0050528687, -0.0073929252, 0.3502566218, 0.0192319248, -0.0734081641, -0.0438967608, 0.1655191630, -0.1220747903, -0.1406985670, 0.2253011316, 0.4510034621, -0.0159226339, -0.0027334192, -0.2287904322, 0.1671245396, -0.3783260286, -0.0329694673, -0.2588611543, 0.0547262765, 0.1753607094, 0.0053796242, 0.0169790424, 0.2966040075, 0.1546435803, 0.1838391572, -0.0363136195, -0.0912624598, -0.1677589864, -0.0594836809, 0.0020441911, -0.0011015752, -0.0842809305, -0.1256969720, -0.1394856423, -0.0101571409, -0.0789475739, -0.1359467506, 0.1848342419, 0.2891153395, 0.0239797626, -0.0016106446, 0.1761807948, 0.1143833548, -0.0402566902, -0.1524754018, -0.1272586286, 0.2646239698, 0.0132146170, -0.3149063289, -0.0254160371, 0.0021295091, 0.0006137381, 0.3100779653, 0.0239732955, -0.1418064684, 0.0819387957, 0.3547694385, 0.0812585801, -0.0081062810, 0.0056786244, -0.3366998136, 0.1059878990, -0.3398364484, -0.0161449164, -0.1009059623, -0.2405539453, -0.0049169706, 0.0849184021, -0.0141510824, 0.2166148424, 0.3876787424, 0.1514582187, -0.0811407566, -0.2318761051, 0.0122015802, 0.0152474744, 0.1403379440, -0.1883622557, -0.1763897091, 0.0977641344, -0.0244470015, -0.0112516778, 0.4316248894, 0.2291489542, -0.1865448952, 0.0643812120, -0.0865867436, -0.0266428329, -0.3529819250, -0.0003427090, -0.0361738950, 0.4879379869, -0.1291552037, -0.0178353768, 0.1237316132, 0.0056883511, -0.0090617165, -0.1464149058, 0.0142592471, -0.1689361036, -0.1287554801, -0.1119862199, 0.2329274863, 0.0498513319, 0.2360309660, -0.1096687093, -0.1070835441, 0.0287282318, -0.2336902171, -0.1668429524, -0.0539726652, 0.0538872778, 0.2999894917, 0.0202307981, -0.0360019915, 0.1271764338, -0.0292971358, -0.0226357337, 0.0002594539, 0.0521605313, 0.1962669194, -0.0810821429, -0.0467505194, 0.0683900863, -0.2914360464, -0.2786379158, 0.0154049564, -0.3533259034, 0.1073122919, -0.0579618067, -0.0183811616, 0.0499755964, -0.2023063749, -0.2113154382, -0.1599059552, -0.2192618847, -0.4354692698, -0.1796482205, -0.0206566434, 0.1421404034, 0.1425825655, 0.0829936638, -0.0350266695, 0.0130238729, 0.3707050085, -0.3048904538, -0.3350480497, 0.1594786048, 0.0761759132, 0.0509121493, -0.1058278680, -0.0025061164, -0.0220712721, 0.2696766555, 0.0116259893, -0.3594165146, 0.0055344631, 0.2340656817, -0.0561057106, -0.0514752604, 0.0951842666, -0.2147395611, -0.3282439709, 0.1622551233, 0.0153765641, -0.4258181751, -0.2195962667, 0.2027633190, 0.1055976748, -0.0138776284, 0.2174847722, -0.0034708912, -0.0274666771, -0.1776286215, -0.1175630018, 0.3218052387, 0.0034799085, -0.0804020911, 0.0021956051, -0.2919165790, 0.1996468753, -0.0042579835, -0.1245621517, -0.0133196255, 0.0029282980, -0.0032911880, -0.0824435428, 0.0599490590, -0.0321857631, -0.3146908879, -0.2276199609, -0.0865132213, -0.0375040360, 0.1205074936, 0.0726756677, -0.1379742771, -0.0278830957, 0.1492503434, 0.0377708338, 0.0018415045, -0.0245005731, 0.2129741907, 0.1118756607, -0.2211244404, 0.0130240973, 0.3351914287, -0.0007630438, 0.0360096730, 0.1089344844, -0.2319221795, -0.0239078831, -0.0255109966, 0.1938948035, -0.0259668566, -0.0052713491, -0.2912316918, 0.1322920173, 0.0135705071, -0.0664364621, -0.0394655205, 0.0352630764, 0.0061912397, -0.0444580503, -0.3072838485, -0.0278178900, 0.0502207391, 0.1483828276, -0.2233176082, -0.0855238587, -0.0158287697, 0.0459441543, -0.0850637034, -0.0143806050, 0.0647664964, -0.1117547527, 0.2200155705, 0.0180552304, 0.1802676171, 0.1236145571, -0.1803974211, -0.0597746968, -0.0128397271, 0.0739068687, -0.0093071572, 0.1127612889, -0.5430029035, 0.0578322895, 0.0241346620, 0.1387866139, 0.1312589943, 0.0719647631, -0.2246522903, 0.0197170395, 0.2003801018, -0.0310812443, 0.0999142006, 0.0071270182, -0.0114014121, 0.2278719395, 0.0332635902, -0.1043707356, -0.0634932667, -0.0066687544, -0.1379521191, -0.3804256618, 0.1870802194, -0.0041872635, 0.0316268355, 0.0020570280, 0.2132389694, 0.0338482112, -0.2330692858, 0.0395486951, -0.0831385925, 0.1024875417, 0.0179367773, 0.1324415058, -0.0681421757, 0.1967115998, -0.0598617978, 0.1926397383, 0.0169851687, -0.2839808762, 0.0557481870, 0.1835770458, 0.2641420960, -0.0363216400, 0.1580876708, 0.2327550352, -0.0075530843, -0.0393920876, -0.1601243019, -0.3083940744, 0.0932798758, -0.1850782335, 0.2305930704, 0.0334156789, 0.1693703681, -0.0120393923, 0.3533938825, -0.0016879516, -0.1805869341, 0.0261809081, 0.0152984308, -0.0153417271, -0.0379464999, 0.0596247911, -0.0980110615, 0.0640160367, 0.0857097208, -0.3878070414, -0.0037221215, -0.0461225919, -0.0178560782, -0.2557975352, -0.2132426202, 0.0379262306, 0.1602822095, -0.3887001276, -0.0220736600, -0.2304820567, 0.0680449530, -0.1000530720, -0.2178945690, 0.0066299648, 0.1084680706, -0.0217692051, 0.0655319542, -0.0967352465, -0.0322595611, 0.0488848425, -0.1720661968, 0.0104954448, -0.0313111767, 0.0968810916, 0.4077508450, 0.0000553307, -0.0640175790, -0.2139825821, -0.1044024080, 0.0059361691, -0.0033531496, 0.0652434081, -0.3260917664, 0.0086798947, 0.1382254511, -0.1682106853, -0.3075154126, -0.0622583888, 0.1937467307, -0.0607833564, 0.0097679701, 0.0267580301, 0.0238608159, -0.0177350882, 0.0501805209, -0.0416439697, 0.0987740904, 0.1722089946, 0.0979993120, 0.1747097820, -0.0052591427, 0.0523362868, -0.2486563027, -0.0212146081, -0.1326957196, 0.0619840957, 0.0947346687, 0.3195756972, 0.2188866735, 0.0122178793, 0.1728399843, 0.0514608659, 0.0074396203, -0.2540729642, 0.0406080820, -0.2520787716, 0.0126055731, -0.2598927021, -0.0884219706, -0.0417614616, 0.0256656483, -0.0378317982, -0.0259219147, 0.0311588626, 0.0512703806, -0.0202945955, -0.0848492905, -0.1949402243, -0.1843816191, -0.0991968438, -0.1523956507, -0.1079665497, -0.2521062493, 0.1021981686, 0.3690905869, -0.0386708006, 0.0150840757, -0.0364072472, -0.0337692946, -0.0278668161, -0.0036295685, -0.0781234205, -0.0457258634, 0.1060024649, -0.0086828573, 0.1903833002, -0.0994274095, 0.0287554767, -0.0459570885, -0.1974266618, -0.0165341590, 0.2006081045, 0.2230748236, -0.0136984941, 0.0543159395, -0.1652065516, -0.2623868287, -0.1559120715, -0.0756016374, -0.0286396239, -0.0163330939, 0.0070359926, -0.0043414515, 0.1188302934, -0.1601436436, -0.0078077419, 0.1871358752, -0.0060985382, 0.1813197136, 0.0107848989, 0.0873669907, 0.2576798201, -0.0491541214, -0.0041211820, -0.0287659839, 0.2602697909, 0.0167034995, -0.0234637279, -0.0079933489, -0.1029552221, 0.0531131811, 0.1010653377, -0.1191933528, -0.2314134091, -0.0726238415, 0.0682517812, -0.0579940490, 0.0755259618, -0.1116523668, 0.0431658179, -0.4267697334, -0.0023614650, 0.1649473459, -0.0788534507, -0.2321960032, 0.4227898419, 0.0219527166, -0.0615887791, -0.2517676651, 0.1741070896, 0.0803140104, 0.0432242341, 0.0075961612, -0.0188951027, 0.1822304577, -0.0663220808, -0.0242832787, 0.1898394525, -0.0584969446, 0.3052345812, -0.0021156024, 0.0550523959, -0.1761740297, 0.2353600562, -0.1110211462, 0.3196862936, 0.2702324092, -0.0457216278, 0.0195181966, -0.5057249665, -0.1749434620, 0.0085701784, -0.1410101056, 0.1647775471, -0.0303090140, -0.2168859839, -0.0111830859, 0.0267360322, 0.2931181192, -0.1845230907, -0.0513851456, -0.3263644278, -0.0933790728, 0.2139725983, -0.0119355991, -0.2750911117, 0.1891903579, -0.0293396637, -0.0419484824, -0.0049667144, -0.1507128030, -0.2406426817, -0.0493328571, 0.0417221375, -0.0119259544, 0.0431234650, 0.0851071700, -0.0207377709, 0.2253091782, -0.5375468731, 0.1502649933, 0.0152502544, 0.0027631703, 0.2597393095, 0.1360294223, 0.1287341267, -0.0082001286, 0.0620759502, -0.0076228525, -0.2526625991, -0.0215081684, 0.0505678579, -0.2767210603, 0.0176996756, 0.2982921898, 0.2464200854, -0.0836374909, 0.1097674072, -0.0938249007, -0.0528897494, 0.0183609370, -0.1255329847, 0.1861101985, 0.1582096964, 0.0012445151, 0.0373491794, 0.1401573122, 0.0350511186, -0.1348524690, -0.1707098782, -0.3288759887, 0.1148056835, 0.0189245008, 0.2347319126, 0.0670512766, 0.0037004277, -0.0049064937, 0.2056407928, -0.0914715230, -0.1031554416, -0.3518148065, -0.1648570448, -0.0745565072, 0.1119269580, 0.1178635657, 0.0589618348, -0.1411843747, -0.0205384642, -0.2792147398, -0.4223812222, 0.0787948743, -0.0151532404, 0.0763325468, 0.1003596410, 0.1590335071, -0.0045488877, -0.0270014722, -0.1337163448, 0.1525947005, 0.0094198957, 0.0110913953, 0.1954626441, -0.1327187270, -0.2855911851, 0.3728972077, 0.2271413505, 0.0015312034, -0.2248746902, 0.4096198082, -0.0690061674, 0.0145710576, 0.3644216061, -0.1112966686, 0.0460735522, -0.2768154442, -0.2892595530, -0.5211473107, 0.2445366085, 0.0148588065, 0.0633798018, -0.1889335215, 0.0725159049, 0.1003977507, -0.0028634712, -0.0295218844, -0.0022544903, -0.0481467880, 0.0214297622, 0.1514769793, 0.0927940384, -0.0258057583, 0.1005327553, 0.0435143597, -0.3933477402, 0.0075631249, -0.1051928625, -0.2240762562, 0.0020214727, 0.0702192187, -0.3180452883, 0.3046173155, 0.1955356151, -0.3794369698, 0.2115366012, -0.0137500493, 0.1920594126, -0.3680476248, 0.0120929694, 0.0317208283, 0.1516168118, -0.3853992820, -0.3499401808, 0.1888308674, 0.1757571250, 0.2337184697, 0.0318611041, 0.1048122719, 0.0159412716, 0.0224894248, 0.0242846757, 0.1707272977, -0.0787709355, 0.1101273671, -0.1680303067, 0.1247212961, -0.0959971473, 0.0548337474, -0.0172397792, -0.0378886946, 0.1535608470, 0.0305656344, 0.0096819578, -0.2288128734, 0.0013211307, 0.1309794039, -0.1732356250, -0.0208227653, -0.0848538280, -0.2748565376, 0.1797415763, 0.0453123488, -0.3099307120, -0.0062757935, 0.1282099932, -0.0965853110, 0.0069917380, -0.1360026449, 0.1412131339, -0.3131042421, 0.1679472327, 0.0900342986, -0.0914030150, -0.3993619680, -0.1781781912, -0.3416040838, 0.0027516366, 0.0143465316, 0.0093090814, -0.0111965016, -0.0515009314, 0.0286519863, 0.0173074454, -0.4829835892, -0.0251625087, -0.2253362536, -0.0094043529, 0.1182482243, -0.1453862041, 0.3011633754, 0.4304488003, -0.1764900833, 0.0599276908, 0.2492436916, -0.0710025281, -0.1778094172, -0.0018710211, -0.0183602162, 0.0911372975, -0.0198781881, -0.2093587965, -0.0654202476, -0.0207886565, -0.0400065109, -0.1942399591, 0.0430021174, -0.5069309473, 0.5097150803, -0.0018424866, 0.0926149860, -0.1712613255, 0.1119925976, 0.0071129217, 0.1435751617, 0.0621108375, 0.0627377480, 0.2828709185, -0.0081779296, -0.0790045112, -0.5111026168, -0.1527983695, -0.0450381860, 0.2341309935, -0.0046543493, 0.2222590446, -0.0781512633, 0.0008431952, -0.5154895782, -0.0032970589, 0.0185907893, -0.0184259359, -0.1028945372, 0.1528662741, 0.0038275870, 0.1477975994, -0.0468557663, -0.0011031339, -0.1476892978, 0.0176643971, 0.0892369002, -0.0350247584, 0.0827836543, 0.0278305393, 0.2020487636, -0.1864191741, 0.2301708013, -0.4665537179, 0.0244099572, 0.0568447709, -0.0186044723, 0.0267527979, 0.0006269822, 0.0072968295, 0.0691007674, 0.1642012298, 0.0919084400, -0.0661930442, 0.2031865716, -0.0385921225, -0.2200034112, 0.0046889437, 0.0041318061, 0.0052118087, 0.0342415497, 0.2912326753, -0.1565065682, -0.0092039602, 0.0836085528, -0.0142586837, -0.0108641004, 0.0068382402, -0.1264090091, 0.0646454394, 0.0145147732, 0.1616106480, -0.0155050727, -0.0014263107, 0.0414615571, 0.1865756214, 0.0044371416, -0.2408439219, -0.0471894108, 0.0338014401, 0.1921535283, 0.2223522216, -0.0652033463, 0.0142222028, -0.1127227843, 0.0949266478, -0.0178313721, -0.1001694351, -0.0353160426, -0.2505302727, 0.2400112599, -0.0320691317, -0.1462292969, -0.5130552053, -0.0383811742, -0.0814357102, -0.1034514904, 0.0480262004, 0.3097365499, 0.1812467575, -0.0414640568, -0.0516944043, -0.1301276088, 0.0137625048, -0.0480673797, -0.0584512502, -0.0214125570, 0.0699116662, 0.2228513360, -0.1303237677, -0.1407430917, -0.3660762012, -0.4812430143, -0.0071378322, -0.1639009863, 0.0704688057, 0.0557785369, 0.0494179167, 0.0069402652, 0.0384566821, -0.0527670979, -0.0440424308, 0.0115069067, -0.0236311033, 0.0155287730, -0.2755146921, 0.0525585227, 0.1021824926, 0.0944142938, -0.0182770919, 0.1284577101, 0.0422665402, 0.1880356073, -0.1237018108, -0.0761348605, -0.0026791373, -0.1433296055, -0.0578618124, -0.1518904418, 0.0368649513, 0.0614936277, -0.1193788871, 0.0421695635, 0.1219382510, -0.0385364592, 0.1276186854, 0.2910073400, -0.0037108923, 0.0602555126, -0.1208455563, 0.1937078536, 0.0202705059, 0.0820680559, 0.0681421757, -0.3046259582, 0.0391061343, -0.0799285322, -0.0046307044, -0.0863810480, -0.1155945957, -0.1698488891, 0.0302747767, -0.0699422061, -0.2271771133, 0.2354225814, 0.0291896388, -0.0041774358, 0.0301373862, 0.0394652635, 0.0107789477, -0.1317383051, -0.0657365248, -0.1351895332, -0.0014728345, -0.1179486811, -0.0060705794, 0.0109535847, 0.1996061653, 0.0074520367, 0.3228942752, -0.1542553902, -0.0965694860, -0.0892606601, 0.1814982742, -0.0627754033, -0.0222088099, 0.2026588172, 0.0930816531, -0.0442311168, -0.0318522342, 0.1290492117, -0.1361039877, 0.0805286989, 0.0479332693, -0.3993965089, 0.0474472791, 0.1038395017, -0.0342169255, 0.0024429539, -0.0261094905, -0.1696734577, 0.0082547124, 0.1043636277, -0.2169254273, -0.2258713096, -0.0391842462, 0.0544319674, 0.0590474643, 0.1670086235, -0.0044094534, -0.0824485198, -0.3524226248, -0.1161619499, 0.1512405723, -0.1018208340, 0.1624130756, -0.1204267964, 0.0936063528, 0.1661336422, 0.1319000870, -0.0471005403, -0.1318211108, 0.0093761235, -0.1132689342, 0.2636378706, -0.2499788553, -0.0191956628, 0.0307905301, -0.0077404501, 0.0108734015, 0.2460343093, 0.3012731075, 0.0259160288, -0.0224701576, 0.1918857843, 0.0969910026, -0.1532503664, 0.0500583649, 0.1715003997, 0.0573672131, 0.0240476672, 0.1148542166, 0.2517548800, 0.0599218346, -0.0744235739, 0.0825622454, 0.0597349815, -0.2060742527, -0.0223396327, 0.0821624771, 0.2291497886, -0.0072515043, -0.0619695298, 0.1019434184, 0.3432342410, 0.0668329000, -0.0530866534, 0.1276679039, 0.1315125972, 0.0978454873, -0.0327391736, 0.0182246733, 0.0800692439, -0.0263205767, -0.2823362648, -0.2731292844, -0.0722600296, 0.1005996466, 0.0587062798, -0.0944328085, 0.0025429372, -0.0001023272, 0.2686729431, -0.1386586726, -0.0480944626, -0.0329412036, -0.1055572852, 0.0217219964, -0.1373634934, -0.0255862419, 0.0008845139, 0.0605247095, -0.1806021184, -0.1680094302, 0.0459712185, -0.1174863428, -0.0347272903, -0.0297428891, 0.2016443908, 0.0078509571, 0.1106718853, 0.0291623380, 0.1028797254, -0.0924714059, 0.0408277623, 0.2715267539, 0.1548327804, 0.0241749510, 0.0308391023, 0.0981961563, -0.0231522284, 0.0022307697, 0.1749726385, 0.0285013989, -0.3025309741, -0.0085956110, 0.0234628487, 0.0128432745, 0.2785343528, -0.0304615758, 0.1862989664, -0.2539047897, -0.0029772297, 0.0044275229, -0.0133400057, 0.1948723346, 0.0043944451, 0.1655863076, -0.0408996791, -0.1756911576, 0.3647282720, 0.0289295781, 0.1108055934, -0.2822797000, 0.0074623604, 0.0111253029, -0.0319551453, -0.0587954931, 0.0971675217, -0.3471810222, -0.2323494107, -0.0721997023, -0.0154873580, -0.0385199375, 0.1255284548, 0.1004288271, 0.0044251066, 0.0420340486, -0.0038336997, 0.0643917099, 0.0259183161, -0.2845328450, 0.3764592409, -0.0228654873, -0.1676142812, -0.0422872715, -0.1475752592, 0.0598214194, -0.0837855488, -0.0090349466, 0.0101162251, 0.1068674400, 0.1258612871, -0.1491798759, -0.2512851059, -0.0393534638, -0.0793552101, -0.0849356204, -0.4037573040, 0.1785625219, 0.1484860182, -0.0692643225, -0.3110812306, -0.0983094871, -0.1857020855, 0.1344326884, -0.2362248152, -0.0059324722, 0.1439720988, 0.0354938358, -0.0090779988, 0.0168137383, -0.0165753607, 0.3091491163, -0.2322831005, -0.0848924667, 0.0654778033, 0.2897036076, 0.0269680135, 0.0962849781, -0.0387308560, -0.0822340995, 0.0270549618, 0.1397184432, 0.3606286943, -0.0478897765, -0.3421027064, -0.0323022939, -0.0052563888, -0.0916192383, 0.0096449303, 0.0014943589, -0.0283108745, -0.2193726748, -0.0154166650, -0.0040142103, 0.1013886929, -0.0355020501, -0.0102839591, -0.0031183779, -0.0230131038, -0.2644571662, 0.0189362112, 0.0819753706, -0.1493164897, -0.0207772870, 0.0902358294, 0.0078087253};
#endif

#endif
