//Numpy array shape [10, 10]
//Min -1.201398134232
//Max 1.311386704445
//Number of zeros 0

#ifndef W34_H_
#define W34_H_

#ifndef __SYNTHESIS__
output_dense_weight_t w34[100];
#else
output_dense_weight_t w34[100] = {-0.5167891383, 0.5608499646, -0.8996214867, -0.1833934039, -0.7489904165, 0.3444903195, -0.5497573018, -0.4944718182, 1.3113867044, -0.2327176630, -0.6794770956, -0.6803612113, -0.1384042948, -0.3336591423, 0.3436765671, 1.0376676321, -0.8152716756, 1.1499891281, -0.7332949638, -1.0191549063, -0.0923196003, -0.7556027174, -0.2099821717, -0.0537113585, -0.1326199621, -0.6428910494, 1.0672305822, 0.7625617385, 0.0875297859, -0.9646031857, 0.7252879739, 1.1758805513, -0.4596276283, -0.8640615344, -0.2600609958, -0.9281692505, -0.2928944528, -0.6092989445, -0.7423216701, 0.0347286575, 0.0305364616, -0.4406519532, -0.7078864574, -0.7464383841, -0.4486065805, -0.7299997211, -1.0429620743, 0.4062476456, 0.3401879966, 1.1364127398, 1.1177926064, -0.8902579546, 0.9534568191, -0.3114369214, 0.2184665203, -0.2744293213, 0.0735987276, -0.5079175830, 0.6747329831, -0.4059034288, -0.4363228977, 0.3685384989, -0.2784221470, -0.1381948143, -0.6767932773, 0.3412261307, 0.7699720263, -1.2013981342, -0.5455189347, 1.0513852835, -0.2120221555, -0.7940657735, -0.2963655889, 0.1150936261, 1.2978677750, -0.3614665866, -0.1441179514, -0.7275916338, -0.5967579484, -0.5139655471, -0.0965475962, -0.4008551836, 1.2472102642, 0.2002648562, -0.2939139903, 0.3973188400, 0.3012492061, -0.2838354409, -0.3758002818, -0.4115218818, 0.1149251387, -0.9612322450, -0.2040689439, 1.1723518372, -0.3316282034, 0.7949315310, -0.1366294026, -0.0990036204, -0.4990857244, -0.3809187710};
#endif

#endif
